<?xml version="1.0"?>
<opencv_storage>
<cascade>
  <stageType>BOOST</stageType>
  <featureType>HAAR</featureType>
  <height>20</height>
  <width>30</width>
  <stageParams>
    <boostType>GAB</boostType>
    <minHitRate>9.9500000476837158e-01</minHitRate>
    <maxFalseAlarm>5.0000000000000000e-01</maxFalseAlarm>
    <weightTrimRate>9.4999999999999996e-01</weightTrimRate>
    <maxDepth>1</maxDepth>
    <maxWeakCount>100</maxWeakCount></stageParams>
  <featureParams>
    <maxCatCount>0</maxCatCount>
    <featSize>1</featSize>
    <mode>BASIC</mode></featureParams>
  <stageNum>11</stageNum>
  <stages>
    <!-- stage 0 -->
    <_>
      <maxWeakCount>3</maxWeakCount>
      <stageThreshold>-1.2148170471191406e+00</stageThreshold>
      <weakClassifiers>
        <_>
          <internalNodes>
            0 -1 32 6.3448086380958557e-02</internalNodes>
          <leafValues>
            -9.4515180587768555e-01 8.3132529258728027e-01</leafValues></_>
        <_>
          <internalNodes>
            0 -1 25 -5.2678599953651428e-02</internalNodes>
          <leafValues>
            8.7295907735824585e-01 -8.7936681509017944e-01</leafValues></_>
        <_>
          <internalNodes>
            0 -1 9 -2.3709148168563843e-02</internalNodes>
          <leafValues>
            6.0970163345336914e-01 -9.6844470500946045e-01</leafValues></_></weakClassifiers></_>
    <!-- stage 1 -->
    <_>
      <maxWeakCount>3</maxWeakCount>
      <stageThreshold>-9.4482755661010742e-01</stageThreshold>
      <weakClassifiers>
        <_>
          <internalNodes>
            0 -1 12 -4.8884446732699871e-03</internalNodes>
          <leafValues>
            7.9220777750015259e-01 -9.3184030055999756e-01</leafValues></_>
        <_>
          <internalNodes>
            0 -1 19 2.6971112936735153e-02</internalNodes>
          <leafValues>
            -8.3330667018890381e-01 8.1254553794860840e-01</leafValues></_>
        <_>
          <internalNodes>
            0 -1 31 5.9286963194608688e-02</internalNodes>
          <leafValues>
            -7.5968688726425171e-01 8.2031941413879395e-01</leafValues></_></weakClassifiers></_>
    <!-- stage 2 -->
    <_>
      <maxWeakCount>3</maxWeakCount>
      <stageThreshold>-1.5129020214080811e+00</stageThreshold>
      <weakClassifiers>
        <_>
          <internalNodes>
            0 -1 26 9.9511342123150826e-03</internalNodes>
          <leafValues>
            -9.1650098562240601e-01 2.6530611515045166e-01</leafValues></_>
        <_>
          <internalNodes>
            0 -1 23 -1.0450856760144234e-02</internalNodes>
          <leafValues>
            2.2672234475612640e-01 -9.8086982965469360e-01</leafValues></_>
        <_>
          <internalNodes>
            0 -1 34 1.1449083685874939e-02</internalNodes>
          <leafValues>
            -7.9733830690383911e-01 5.5089503526687622e-01</leafValues></_></weakClassifiers></_>
    <!-- stage 3 -->
    <_>
      <maxWeakCount>3</maxWeakCount>
      <stageThreshold>-1.1678215265274048e+00</stageThreshold>
      <weakClassifiers>
        <_>
          <internalNodes>
            0 -1 16 -3.7743826396763325e-03</internalNodes>
          <leafValues>
            5.3333336114883423e-01 -8.8888889551162720e-01</leafValues></_>
        <_>
          <internalNodes>
            0 -1 18 1.4874221757054329e-02</internalNodes>
          <leafValues>
            -7.5969374179840088e-01 5.5559104681015015e-01</leafValues></_>
        <_>
          <internalNodes>
            0 -1 6 2.1532535552978516e-02</internalNodes>
          <leafValues>
            -8.3452373743057251e-01 4.9179637432098389e-01</leafValues></_></weakClassifiers></_>
    <!-- stage 4 -->
    <_>
      <maxWeakCount>4</maxWeakCount>
      <stageThreshold>-1.1551232337951660e+00</stageThreshold>
      <weakClassifiers>
        <_>
          <internalNodes>
            0 -1 21 8.7414663285017014e-03</internalNodes>
          <leafValues>
            -9.1540783643722534e-01 1.1711711436510086e-01</leafValues></_>
        <_>
          <internalNodes>
            0 -1 7 1.7696559429168701e-02</internalNodes>
          <leafValues>
            -7.9476529359817505e-01 4.8043802380561829e-01</leafValues></_>
        <_>
          <internalNodes>
            0 -1 8 -1.5511710080318153e-04</internalNodes>
          <leafValues>
            -9.7846782207489014e-01 2.4959319829940796e-01</leafValues></_>
        <_>
          <internalNodes>
            0 -1 35 5.3343065083026886e-03</internalNodes>
          <leafValues>
            -9.4400209188461304e-01 3.0545675754547119e-01</leafValues></_></weakClassifiers></_>
    <!-- stage 5 -->
    <_>
      <maxWeakCount>4</maxWeakCount>
      <stageThreshold>-1.3985899686813354e+00</stageThreshold>
      <weakClassifiers>
        <_>
          <internalNodes>
            0 -1 20 1.3614952564239502e-02</internalNodes>
          <leafValues>
            -8.6491554975509644e-01 6.8421053886413574e-01</leafValues></_>
        <_>
          <internalNodes>
            0 -1 11 -4.5003678649663925e-02</internalNodes>
          <leafValues>
            1.3229662179946899e-01 -8.8066160678863525e-01</leafValues></_>
        <_>
          <internalNodes>
            0 -1 5 1.7881963867694139e-03</internalNodes>
          <leafValues>
            2.6263430714607239e-01 -9.4466787576675415e-01</leafValues></_>
        <_>
          <internalNodes>
            0 -1 1 3.6392622860148549e-04</internalNodes>
          <leafValues>
            2.7869680523872375e-01 -9.2820280790328979e-01</leafValues></_></weakClassifiers></_>
    <!-- stage 6 -->
    <_>
      <maxWeakCount>3</maxWeakCount>
      <stageThreshold>-1.3370113372802734e+00</stageThreshold>
      <weakClassifiers>
        <_>
          <internalNodes>
            0 -1 13 -2.3613635450601578e-02</internalNodes>
          <leafValues>
            6.3157892227172852e-01 -8.6303937435150146e-01</leafValues></_>
        <_>
          <internalNodes>
            0 -1 30 1.7324242740869522e-02</internalNodes>
          <leafValues>
            -7.2925883531570435e-01 3.7193134427070618e-01</leafValues></_>
        <_>
          <internalNodes>
            0 -1 4 -1.5146390069276094e-04</internalNodes>
          <leafValues>
            -9.8970288038253784e-01 2.5528687238693237e-01</leafValues></_></weakClassifiers></_>
    <!-- stage 7 -->
    <_>
      <maxWeakCount>4</maxWeakCount>
      <stageThreshold>-1.3771522045135498e+00</stageThreshold>
      <weakClassifiers>
        <_>
          <internalNodes>
            0 -1 21 1.0986933484673500e-02</internalNodes>
          <leafValues>
            -8.9442229270935059e-01 1.9999999552965164e-02</leafValues></_>
        <_>
          <internalNodes>
            0 -1 28 1.8696594983339310e-02</internalNodes>
          <leafValues>
            -7.6822715997695923e-01 2.0752246677875519e-01</leafValues></_>
        <_>
          <internalNodes>
            0 -1 0 -1.2845650315284729e-02</internalNodes>
          <leafValues>
            2.9113242030143738e-01 -9.0445429086685181e-01</leafValues></_>
        <_>
          <internalNodes>
            0 -1 3 6.5441062906756997e-04</internalNodes>
          <leafValues>
            2.7552926540374756e-01 -9.7976100444793701e-01</leafValues></_></weakClassifiers></_>
    <!-- stage 8 -->
    <_>
      <maxWeakCount>4</maxWeakCount>
      <stageThreshold>-1.0346808433532715e+00</stageThreshold>
      <weakClassifiers>
        <_>
          <internalNodes>
            0 -1 33 -1.6924288123846054e-02</internalNodes>
          <leafValues>
            6.8421053886413574e-01 -8.6491554975509644e-01</leafValues></_>
        <_>
          <internalNodes>
            0 -1 36 -3.2843765802681446e-03</internalNodes>
          <leafValues>
            3.8399672508239746e-01 -6.8835681676864624e-01</leafValues></_>
        <_>
          <internalNodes>
            0 -1 2 3.5858717747032642e-03</internalNodes>
          <leafValues>
            2.4061934649944305e-01 -9.9484318494796753e-01</leafValues></_>
        <_>
          <internalNodes>
            0 -1 22 -6.8157445639371872e-04</internalNodes>
          <leafValues>
            3.1846195459365845e-01 -7.9438138008117676e-01</leafValues></_></weakClassifiers></_>
    <!-- stage 9 -->
    <_>
      <maxWeakCount>4</maxWeakCount>
      <stageThreshold>-1.8032772541046143e+00</stageThreshold>
      <weakClassifiers>
        <_>
          <internalNodes>
            0 -1 24 5.3863162174820900e-03</internalNodes>
          <leafValues>
            -8.9357429742813110e-01 -5.5555555969476700e-02</leafValues></_>
        <_>
          <internalNodes>
            0 -1 30 1.8944192677736282e-02</internalNodes>
          <leafValues>
            -6.9546282291412354e-01 2.6350012421607971e-01</leafValues></_>
        <_>
          <internalNodes>
            0 -1 27 4.5504936133511364e-04</internalNodes>
          <leafValues>
            2.4896731972694397e-01 -9.2738604545593262e-01</leafValues></_>
        <_>
          <internalNodes>
            0 -1 15 9.0961217880249023e-02</internalNodes>
          <leafValues>
            -4.6320745348930359e-01 6.7227143049240112e-01</leafValues></_></weakClassifiers></_>
    <!-- stage 10 -->
    <_>
      <maxWeakCount>5</maxWeakCount>
      <stageThreshold>-1.8396692276000977e+00</stageThreshold>
      <weakClassifiers>
        <_>
          <internalNodes>
            0 -1 17 -1.5235837548971176e-02</internalNodes>
          <leafValues>
            4.7368422150611877e-01 -8.5741090774536133e-01</leafValues></_>
        <_>
          <internalNodes>
            0 -1 27 -6.4963736804202199e-04</internalNodes>
          <leafValues>
            -9.6518468856811523e-01 -1.3427674770355225e-02</leafValues></_>
        <_>
          <internalNodes>
            0 -1 14 -2.8097433969378471e-03</internalNodes>
          <leafValues>
            4.8174282908439636e-01 -5.4095566272735596e-01</leafValues></_>
        <_>
          <internalNodes>
            0 -1 10 1.9483613141346723e-04</internalNodes>
          <leafValues>
            -7.1888196468353271e-01 3.6454385519027710e-01</leafValues></_>
        <_>
          <internalNodes>
            0 -1 29 -1.6313568630721420e-04</internalNodes>
          <leafValues>
            -9.2861187458038330e-01 2.9100695252418518e-01</leafValues></_></weakClassifiers></_></stages>
  <features>
    <_>
      <rects>
        <_>
          0 1 15 4 -1.</_>
        <_>
          0 3 15 2 2.</_></rects>
      <tilted>0</tilted></_>
    <_>
      <rects>
        <_>
          0 15 3 4 -1.</_>
        <_>
          0 17 3 2 2.</_></rects>
      <tilted>0</tilted></_>
    <_>
      <rects>
        <_>
          1 0 18 1 -1.</_>
        <_>
          7 0 6 1 3.</_></rects>
      <tilted>0</tilted></_>
    <_>
      <rects>
        <_>
          1 0 12 2 -1.</_>
        <_>
          1 0 6 1 2.</_>
        <_>
          7 1 6 1 2.</_></rects>
      <tilted>0</tilted></_>
    <_>
      <rects>
        <_>
          2 1 1 4 -1.</_>
        <_>
          2 3 1 2 2.</_></rects>
      <tilted>0</tilted></_>
    <_>
      <rects>
        <_>
          4 17 18 3 -1.</_>
        <_>
          10 17 6 3 3.</_></rects>
      <tilted>0</tilted></_>
    <_>
      <rects>
        <_>
          5 15 15 4 -1.</_>
        <_>
          5 17 15 2 2.</_></rects>
      <tilted>0</tilted></_>
    <_>
      <rects>
        <_>
          6 3 9 2 -1.</_>
        <_>
          9 3 3 2 3.</_></rects>
      <tilted>0</tilted></_>
    <_>
      <rects>
        <_>
          7 0 19 2 -1.</_>
        <_>
          7 1 19 1 2.</_></rects>
      <tilted>0</tilted></_>
    <_>
      <rects>
        <_>
          9 0 8 6 -1.</_>
        <_>
          9 3 8 3 2.</_></rects>
      <tilted>0</tilted></_>
    <_>
      <rects>
        <_>
          9 3 6 1 -1.</_>
        <_>
          11 3 2 1 3.</_></rects>
      <tilted>0</tilted></_>
    <_>
      <rects>
        <_>
          10 0 15 6 -1.</_>
        <_>
          10 3 15 3 2.</_></rects>
      <tilted>0</tilted></_>
    <_>
      <rects>
        <_>
          11 11 2 2 -1.</_>
        <_>
          12 11 1 2 2.</_></rects>
      <tilted>0</tilted></_>
    <_>
      <rects>
        <_>
          11 16 9 1 -1.</_>
        <_>
          14 16 3 1 3.</_></rects>
      <tilted>0</tilted></_>
    <_>
      <rects>
        <_>
          12 4 2 4 -1.</_>
        <_>
          12 4 1 2 2.</_>
        <_>
          13 6 1 2 2.</_></rects>
      <tilted>0</tilted></_>
    <_>
      <rects>
        <_>
          12 4 6 12 -1.</_>
        <_>
          14 4 2 12 3.</_></rects>
      <tilted>0</tilted></_>
    <_>
      <rects>
        <_>
          12 6 2 1 -1.</_>
        <_>
          13 6 1 1 2.</_></rects>
      <tilted>0</tilted></_>
    <_>
      <rects>
        <_>
          12 10 2 6 -1.</_>
        <_>
          12 10 1 3 2.</_>
        <_>
          13 13 1 3 2.</_></rects>
      <tilted>0</tilted></_>
    <_>
      <rects>
        <_>
          12 10 1 10 -1.</_>
        <_>
          12 15 1 5 2.</_></rects>
      <tilted>0</tilted></_>
    <_>
      <rects>
        <_>
          12 11 6 5 -1.</_>
        <_>
          14 11 2 5 3.</_></rects>
      <tilted>0</tilted></_>
    <_>
      <rects>
        <_>
          13 2 2 6 -1.</_>
        <_>
          13 2 1 3 2.</_>
        <_>
          14 5 1 3 2.</_></rects>
      <tilted>0</tilted></_>
    <_>
      <rects>
        <_>
          13 2 2 8 -1.</_>
        <_>
          13 2 1 4 2.</_>
        <_>
          14 6 1 4 2.</_></rects>
      <tilted>0</tilted></_>
    <_>
      <rects>
        <_>
          13 4 2 14 -1.</_>
        <_>
          13 4 1 7 2.</_>
        <_>
          14 11 1 7 2.</_></rects>
      <tilted>0</tilted></_>
    <_>
      <rects>
        <_>
          14 1 7 4 -1.</_>
        <_>
          14 3 7 2 2.</_></rects>
      <tilted>0</tilted></_>
    <_>
      <rects>
        <_>
          14 2 4 2 -1.</_>
        <_>
          14 2 2 1 2.</_>
        <_>
          16 3 2 1 2.</_></rects>
      <tilted>0</tilted></_>
    <_>
      <rects>
        <_>
          14 4 6 10 -1.</_>
        <_>
          16 4 2 10 3.</_></rects>
      <tilted>0</tilted></_>
    <_>
      <rects>
        <_>
          14 15 2 4 -1.</_>
        <_>
          14 17 2 2 2.</_></rects>
      <tilted>0</tilted></_>
    <_>
      <rects>
        <_>
          14 18 9 1 -1.</_>
        <_>
          17 18 3 1 3.</_></rects>
      <tilted>0</tilted></_>
    <_>
      <rects>
        <_>
          15 14 9 3 -1.</_>
        <_>
          18 14 3 3 3.</_></rects>
      <tilted>0</tilted></_>
    <_>
      <rects>
        <_>
          16 1 2 2 -1.</_>
        <_>
          16 2 2 1 2.</_></rects>
      <tilted>0</tilted></_>
    <_>
      <rects>
        <_>
          16 1 4 8 -1.</_>
        <_>
          16 1 2 4 2.</_>
        <_>
          18 5 2 4 2.</_></rects>
      <tilted>0</tilted></_>
    <_>
      <rects>
        <_>
          16 4 6 10 -1.</_>
        <_>
          18 4 2 10 3.</_></rects>
      <tilted>0</tilted></_>
    <_>
      <rects>
        <_>
          16 5 6 11 -1.</_>
        <_>
          18 5 2 11 3.</_></rects>
      <tilted>0</tilted></_>
    <_>
      <rects>
        <_>
          16 7 3 2 -1.</_>
        <_>
          17 7 1 2 3.</_></rects>
      <tilted>0</tilted></_>
    <_>
      <rects>
        <_>
          16 8 1 12 -1.</_>
        <_>
          16 14 1 6 2.</_></rects>
      <tilted>0</tilted></_>
    <_>
      <rects>
        <_>
          16 8 14 3 -1.</_>
        <_>
          23 8 7 3 2.</_></rects>
      <tilted>0</tilted></_>
    <_>
      <rects>
        <_>
          16 12 2 4 -1.</_>
        <_>
          16 12 1 2 2.</_>
        <_>
          17 14 1 2 2.</_></rects>
      <tilted>0</tilted></_></features></cascade>
</opencv_storage>
