<?xml version="1.0"?>
<opencv_storage>
<cascade>
  <stageType>BOOST</stageType>
  <featureType>HAAR</featureType>
  <height>20</height>
  <width>30</width>
  <stageParams>
    <boostType>GAB</boostType>
    <minHitRate>9.9500000476837158e-01</minHitRate>
    <maxFalseAlarm>5.0000000000000000e-01</maxFalseAlarm>
    <weightTrimRate>9.4999998807907104e-01</weightTrimRate>
    <maxDepth>1</maxDepth>
    <maxWeakCount>100</maxWeakCount></stageParams>
  <featureParams>
    <maxCatCount>0</maxCatCount>
    <featSize>1</featSize>
    <mode>BASIC</mode></featureParams>
  <stageNum>8</stageNum>
  <stages>
    <!-- stage 0 -->
    <_>
      <maxWeakCount>3</maxWeakCount>
      <stageThreshold>-1.0529372692108154e+00</stageThreshold>
      <weakClassifiers>
        <_>
          <internalNodes>
            0 -1 14 -4.6063948422670364e-02</internalNodes>
          <leafValues>
            7.3684209585189819e-01 -9.7014927864074707e-01</leafValues></_>
        <_>
          <internalNodes>
            0 -1 18 2.5215107947587967e-02</internalNodes>
          <leafValues>
            -9.1151130199432373e-01 7.4492788314819336e-01</leafValues></_>
        <_>
          <internalNodes>
            0 -1 11 4.5248091220855713e-02</internalNodes>
          <leafValues>
            -8.2771593332290649e-01 8.4181308746337891e-01</leafValues></_></weakClassifiers></_>
    <!-- stage 1 -->
    <_>
      <maxWeakCount>2</maxWeakCount>
      <stageThreshold>-6.3247126340866089e-01</stageThreshold>
      <weakClassifiers>
        <_>
          <internalNodes>
            0 -1 5 -4.4048730283975601e-02</internalNodes>
          <leafValues>
            3.5211268067359924e-01 -9.3465346097946167e-01</leafValues></_>
        <_>
          <internalNodes>
            0 -1 7 2.3034110665321350e-02</internalNodes>
          <leafValues>
            -9.8458397388458252e-01 3.5849508643150330e-01</leafValues></_></weakClassifiers></_>
    <!-- stage 2 -->
    <_>
      <maxWeakCount>3</maxWeakCount>
      <stageThreshold>-1.7247072458267212e+00</stageThreshold>
      <weakClassifiers>
        <_>
          <internalNodes>
            0 -1 9 -1.8355503678321838e-02</internalNodes>
          <leafValues>
            5.2941179275512695e-01 -9.1844660043716431e-01</leafValues></_>
        <_>
          <internalNodes>
            0 -1 13 -1.0955682955682278e-02</internalNodes>
          <leafValues>
            3.0340895056724548e-01 -9.8236638307571411e-01</leafValues></_>
        <_>
          <internalNodes>
            0 -1 2 3.3943078014999628e-03</internalNodes>
          <leafValues>
            -1. 1.7610569298267365e-01</leafValues></_></weakClassifiers></_>
    <!-- stage 3 -->
    <_>
      <maxWeakCount>3</maxWeakCount>
      <stageThreshold>-1.5831544399261475e+00</stageThreshold>
      <weakClassifiers>
        <_>
          <internalNodes>
            0 -1 4 -1.7475441098213196e-02</internalNodes>
          <leafValues>
            2.2222222387790680e-01 -9.2666006088256836e-01</leafValues></_>
        <_>
          <internalNodes>
            0 -1 19 2.3709788918495178e-02</internalNodes>
          <leafValues>
            -8.5571354627609253e-01 2.8970029950141907e-01</leafValues></_>
        <_>
          <internalNodes>
            0 -1 3 -2.7109939604997635e-02</internalNodes>
          <leafValues>
            3.2322123646736145e-01 -9.4619470834732056e-01</leafValues></_></weakClassifiers></_>
    <!-- stage 4 -->
    <_>
      <maxWeakCount>3</maxWeakCount>
      <stageThreshold>-1.2254116535186768e+00</stageThreshold>
      <weakClassifiers>
        <_>
          <internalNodes>
            0 -1 8 1.0462555103003979e-02</internalNodes>
          <leafValues>
            -8.9184063673019409e-01 7.7777779102325439e-01</leafValues></_>
        <_>
          <internalNodes>
            0 -1 6 1.6727458685636520e-02</internalNodes>
          <leafValues>
            -7.9872423410415649e-01 4.9807378649711609e-01</leafValues></_>
        <_>
          <internalNodes>
            0 -1 22 -1.1551207862794399e-02</internalNodes>
          <leafValues>
            4.6515321731567383e-01 -7.9865962266921997e-01</leafValues></_></weakClassifiers></_>
    <!-- stage 5 -->
    <_>
      <maxWeakCount>3</maxWeakCount>
      <stageThreshold>-1.1152454614639282e+00</stageThreshold>
      <weakClassifiers>
        <_>
          <internalNodes>
            0 -1 20 4.9167936667799950e-03</internalNodes>
          <leafValues>
            -8.9343482255935669e-01 6.6666668653488159e-01</leafValues></_>
        <_>
          <internalNodes>
            0 -1 17 8.5513740777969360e-03</internalNodes>
          <leafValues>
            -7.8848904371261597e-01 4.7242057323455811e-01</leafValues></_>
        <_>
          <internalNodes>
            0 -1 12 5.6224446743726730e-03</internalNodes>
          <leafValues>
            -6.9423121213912964e-01 5.8508437871932983e-01</leafValues></_></weakClassifiers></_>
    <!-- stage 6 -->
    <_>
      <maxWeakCount>3</maxWeakCount>
      <stageThreshold>-1.4508612155914307e+00</stageThreshold>
      <weakClassifiers>
        <_>
          <internalNodes>
            0 -1 10 -7.4643762782216072e-03</internalNodes>
          <leafValues>
            5.3846156597137451e-01 -9.0211135149002075e-01</leafValues></_>
        <_>
          <internalNodes>
            0 -1 15 2.4276915937662125e-02</internalNodes>
          <leafValues>
            -8.0518519878387451e-01 3.0339488387107849e-01</leafValues></_>
        <_>
          <internalNodes>
            0 -1 1 -2.7704390231519938e-04</internalNodes>
          <leafValues>
            -9.8780149221420288e-01 2.5643527507781982e-01</leafValues></_></weakClassifiers></_>
    <!-- stage 7 -->
    <_>
      <maxWeakCount>3</maxWeakCount>
      <stageThreshold>-1.6865170001983643e+00</stageThreshold>
      <weakClassifiers>
        <_>
          <internalNodes>
            0 -1 16 7.9373326152563095e-03</internalNodes>
          <leafValues>
            -9.1304349899291992e-01 7.2463765740394592e-02</leafValues></_>
        <_>
          <internalNodes>
            0 -1 0 9.5885328482836485e-04</internalNodes>
          <leafValues>
            1.5177763998508453e-01 -9.2821145057678223e-01</leafValues></_>
        <_>
          <internalNodes>
            0 -1 21 3.7839228753000498e-04</internalNodes>
          <leafValues>
            1.5473796427249908e-01 -9.8839974403381348e-01</leafValues></_></weakClassifiers></_></stages>
  <features>
    <_>
      <rects>
        <_>
          0 0 13 2 -1.</_>
        <_>
          0 1 13 1 2.</_></rects>
      <tilted>0</tilted></_>
    <_>
      <rects>
        <_>
          0 0 14 2 -1.</_>
        <_>
          0 1 14 1 2.</_></rects>
      <tilted>0</tilted></_>
    <_>
      <rects>
        <_>
          4 1 13 3 -1.</_>
        <_>
          4 2 13 1 3.</_></rects>
      <tilted>0</tilted></_>
    <_>
      <rects>
        <_>
          6 0 10 6 -1.</_>
        <_>
          6 3 10 3 2.</_></rects>
      <tilted>0</tilted></_>
    <_>
      <rects>
        <_>
          10 3 9 1 -1.</_>
        <_>
          13 3 3 1 3.</_></rects>
      <tilted>0</tilted></_>
    <_>
      <rects>
        <_>
          10 5 4 9 -1.</_>
        <_>
          12 5 2 9 2.</_></rects>
      <tilted>0</tilted></_>
    <_>
      <rects>
        <_>
          10 11 4 8 -1.</_>
        <_>
          10 11 2 4 2.</_>
        <_>
          12 15 2 4 2.</_></rects>
      <tilted>0</tilted></_>
    <_>
      <rects>
        <_>
          10 15 15 4 -1.</_>
        <_>
          10 17 15 2 2.</_></rects>
      <tilted>0</tilted></_>
    <_>
      <rects>
        <_>
          11 3 4 2 -1.</_>
        <_>
          11 3 2 1 2.</_>
        <_>
          13 4 2 1 2.</_></rects>
      <tilted>0</tilted></_>
    <_>
      <rects>
        <_>
          11 16 9 1 -1.</_>
        <_>
          14 16 3 1 3.</_></rects>
      <tilted>0</tilted></_>
    <_>
      <rects>
        <_>
          12 4 2 4 -1.</_>
        <_>
          12 4 1 2 2.</_>
        <_>
          13 6 1 2 2.</_></rects>
      <tilted>0</tilted></_>
    <_>
      <rects>
        <_>
          12 5 6 11 -1.</_>
        <_>
          14 5 2 11 3.</_></rects>
      <tilted>0</tilted></_>
    <_>
      <rects>
        <_>
          12 11 1 6 -1.</_>
        <_>
          12 14 1 3 2.</_></rects>
      <tilted>0</tilted></_>
    <_>
      <rects>
        <_>
          14 1 6 4 -1.</_>
        <_>
          14 3 6 2 2.</_></rects>
      <tilted>0</tilted></_>
    <_>
      <rects>
        <_>
          14 5 6 11 -1.</_>
        <_>
          16 5 2 11 3.</_></rects>
      <tilted>0</tilted></_>
    <_>
      <rects>
        <_>
          14 15 12 2 -1.</_>
        <_>
          18 15 4 2 3.</_></rects>
      <tilted>0</tilted></_>
    <_>
      <rects>
        <_>
          14 16 2 2 -1.</_>
        <_>
          14 17 2 1 2.</_></rects>
      <tilted>0</tilted></_>
    <_>
      <rects>
        <_>
          15 10 2 8 -1.</_>
        <_>
          15 10 1 4 2.</_>
        <_>
          16 14 1 4 2.</_></rects>
      <tilted>0</tilted></_>
    <_>
      <rects>
        <_>
          16 4 6 5 -1.</_>
        <_>
          18 4 2 5 3.</_></rects>
      <tilted>0</tilted></_>
    <_>
      <rects>
        <_>
          16 11 6 4 -1.</_>
        <_>
          18 11 2 4 3.</_></rects>
      <tilted>0</tilted></_>
    <_>
      <rects>
        <_>
          16 15 2 2 -1.</_>
        <_>
          16 15 1 1 2.</_>
        <_>
          17 16 1 1 2.</_></rects>
      <tilted>0</tilted></_>
    <_>
      <rects>
        <_>
          16 17 3 3 -1.</_>
        <_>
          16 18 3 1 3.</_></rects>
      <tilted>0</tilted></_>
    <_>
      <rects>
        <_>
          17 1 1 15 -1.</_>
        <_>
          17 6 1 5 3.</_></rects>
      <tilted>0</tilted></_></features></cascade>
</opencv_storage>
